Categories,2000,2001,2002,2003,2004,2005,2006,2007,2008,2009,2010,2011,2012,2013,2014,2015,2016,2017,2018,2019,2020,2021,2022,2025,2030,2035,2040,2045,2050
Electricity,0.0330555390359573,0.045365955099999904,0.0360569542,0.0436378534,0.0480602180807175,0.0629191854730045,0.0542698498431428,0.0398062394073857,0.054294319602682196,0.0512017165387232,0.0552792182416363,0.053792607353096406,0.0509895978050498,0.105270211522815,0.10040977461428281,0.10511526044145689,0.10511526044145689,0.10511526044145689,0.10511526044145689,0.10511526044145689,0.10062492883801696,0.09785955986228005,0.10245249241880004,1.0628737690721202,3.622652928508766,6.5962990429728485,8.265039176829069,7.8458996774689265,7.448162150810366
Liquid oil,11.935816176274077,12.917093676041617,13.399727511769967,13.670381739964451,14.993767490163343,15.849912434547214,16.812245041504582,19.642833213266353,19.533909127901616,16.14378895673859,16.59633336166173,16.474448520797562,16.453552431029504,16.438703837123768,18.252557686489183,19.20853140528559,19.20853140528559,19.20853140528559,19.20853140528559,19.20853140528559,19.826037054642033,19.284077864984077,18.730025939492695,16.000244885068295,10.474183072187332,4.63688315462232,0.9465782270364936,0.46771019059123614,0.36062069385677215
Liquid & Gas biofuel,,,,,0.0104711868,0.0383333453011371,0.2243991055,0.6186183079999998,0.7140829304,0.5989453489000001,0.5206382601809018,0.5233404050777288,0.7038888888888895,0.6711078226851955,0.7355555475093005,0.7908333333333329,0.7908333333333329,0.7908333333333329,0.7908333333333329,0.7908333333333329,0.8339143352848858,0.8255579868462405,0.8163473705753763,0.7343914580228496,0.5236755790201526,0.2525865542258468,0.05652779048979036,0.03070510233758431,0.025837608209892185
Liquid and Gas e-Fuel,,,,,,,,,,,,,,,,,,,,,,,,,,,,0.0018908909542449165,0.00043689695727434913
Gas natural,,,,,,,,,,0.013827167979135592,0.023946414571299774,0.0317442946824347,0.028648640243510336,0.039582445324212165,0.04605467142855202,0.07623177787432979,0.07623177787432979,0.07623177787432979,0.07623177787432979,0.07623177787432979,0.08663712207490715,0.09115946032554799,0.09533561445071573,0.07628647259826302,0.05202484474471426,0.03505720574798038,0.023360200652207248,0.0154289483601845,0.010086832206139774
Gas hydrogen,,,,,,,,,,,,,,,,,,,,,,0.0020039980594540804,0.005647712807840005,0.029947990955856717,0.03721529489022798,0.021715166652675325,0.008468935241579155,-0.003167833889990617,-0.013564815871289477
Total,11.968871715310035,12.962459631141616,13.435784465969967,13.714019593364451,15.05229889504406,15.951164965321356,17.090913996847725,20.30125776067374,20.3022863779043,16.80776319015645,17.19619725465557,17.08332582791082,17.237079557966954,17.25466431665599,19.134577680041318,20.18071177693471,20.18071177693471,20.18071177693471,20.18071177693471,20.18071177693471,20.84721344083984,20.300658870077598,19.749809129745426,17.903744575717383,14.709751719351193,11.542541124221671,9.299974330249139,8.358466975822186,7.831579366169155
